-0.310000 -2.935722 -1.769361 -1.557361 -0.308000 1.455361 1.616361 -0.187000 0.249000 -1.308361 -3.274722 0.180000 1.426361 1.939361 -0.161000 1.191361 -0.126000 -0.234000 0.034000 0.186000 
-1.056681 -1.017681 1.235681 0.969681 1.215681 0.709681 -1.158681 -0.335681 -0.380681 -2.777042 0.624681 -0.917681 1.028681 -1.117681 0.953681 -1.088681 -0.304681 -1.188681 -0.923681 0.431681 
0.318000 0.475000 1.096361 1.947361 1.324361 -2.068361 -1.732361 0.379000 -0.038000 -1.592361 -0.111000 0.051000 1.135361 1.897361 0.338000 -1.767361 0.372000 0.042000 0.095000 -0.355000 
1.680361 0.310000 -1.460361 -0.088000 -4.560084 -1.457361 -0.094000 1.438361 3.505722 -0.397000 -1.194361 -1.996361 1.967361 1.171361 -0.373000 0.447000 3.615722 0.195000 -1.500361 -1.544361 
-0.171000 -0.136000 -0.423000 2.052361 1.834361 0.109000 -1.957361 0.221000 0.080000 -1.244361 -0.492000 0.256000 1.571361 -0.432000 -0.161000 -0.331000 -0.063000 -1.333361 -1.105361 0.212000 
1.011681 0.362681 0.507681 2.604042 2.320042 0.932681 -2.021042 -2.109042 0.782681 -0.598681 -0.927681 0.488681 2.524042 -2.264042 -0.786681 2.588042 1.255681 -1.008681 -0.437681 -0.740681 
-0.260000 0.053000 1.453361 1.932361 1.510361 0.377000 -1.280361 -2.001361 0.311000 -1.585361 -0.303000 -0.443000 1.118361 1.844361 -0.212000 -0.404000 0.248000 0.006000 -0.072000 0.471000 
0.740681 -0.338681 1.082681 0.755681 1.178681 -0.463681 -0.422681 -0.451681 -2.766042 -2.375042 -0.427681 2.403042 1.905042 0.745681 0.752681 -0.982681 -2.838042 -3.748403 -1.183681 -0.589681 
0.499000 0.168000 1.325361 1.379361 2.016361 1.550361 -1.240361 3.180722 0.244000 -1.669361 -0.202000 0.170000 1.455361 1.128361 -0.440000 1.492361 -0.101000 0.335000 0.487000 0.298000 
0.792681 -0.723681 0.653681 -0.350681 5.466764 -1.212681 0.381681 -1.031681 0.692681 -0.480681 -0.898681 -0.413681 1.099681 0.871681 0.800681 -0.340681 1.103681 0.498681 0.607681 -0.703681 
-1.778361 -0.400681 -1.098361 -1.883361 -1.899361 -2.613042 -1.142361 -2.566042 -1.776361 -1.287681 
