-1.121626 -1.355626 -0.762626 -0.990626 -0.853626 0.434626 1.047626 0.701626 -1.005626 0.577626 -1.258626 0.645626 -1.070626 1.040626 -0.680626 0.866626 -0.702626 0.789626 0.561626 0.614626 
-0.009000 -0.427000 -0.487000 -0.453000 -0.392000 0.214000 0.355000 0.325000 0.017000 0.079000 -0.110000 -0.067000 0.208000 0.056000 0.055000 0.459000 -0.415000 0.012000 -0.076000 0.096000 
-0.999626 0.523626 0.619626 0.680626 -0.691626 -0.870626 -1.291626 1.103626 -0.991626 1.114626 1.164626 1.013626 -1.167626 0.684626 -0.411626 -0.610626 -0.555626 1.242626 0.513626 0.419626 
-0.278000 0.082000 -0.059000 -0.421000 0.150000 0.076000 0.411000 0.497000 0.375000 -0.273000 0.298000 -0.492000 -0.147000 0.185000 0.496000 -0.126000 0.107000 -0.352000 0.215000 0.127000 
0.411000 0.437000 0.089000 -0.096000 0.042000 -0.341000 -0.413000 0.078000 0.497000 -0.128000 -0.073000 -0.006000 -0.223000 -0.017000 0.418000 0.186000 -0.489000 -0.442000 -0.238000 0.091000 
0.522626 0.525626 0.970626 -0.668626 0.392626 -1.207626 -0.764626 -0.884626 0.947626 0.789626 1.068626 -0.600626 -0.567626 -0.523626 0.670626 -1.029626 0.761626 0.730626 0.554626 -1.015626 
0.432000 0.450000 -0.256000 0.268000 -0.116000 0.346000 -0.291000 -0.150000 0.225000 0.016000 0.430000 0.309000 -0.216000 0.442000 0.192000 0.158000 0.292000 -0.316000 -0.015000 0.468000 
0.585626 0.762626 1.193626 -1.187626 -0.973626 -0.459626 0.680626 -0.564626 -0.942626 0.647626 0.693626 1.045626 -1.329626 -0.937626 0.599626 -1.167626 -0.963626 -0.958626 0.593626 -0.846626 
0.079000 0.471000 -0.381000 0.418000 -0.203000 0.130000 0.156000 -0.066000 0.114000 -0.434000 -0.150000 0.149000 -0.500000 0.496000 0.232000 -0.484000 -0.496000 -0.346000 0.095000 0.323000 
0.488000 -0.079000 -0.368000 -0.036000 0.467000 0.229000 0.368000 -0.273000 0.165000 -0.148000 0.001000 -0.477000 0.280000 -0.116000 -0.303000 0.255000 0.409000 0.202000 -0.213000 0.352000 
17.411514 0.329000 17.238514 -0.315000 -0.103000 17.498514 -0.361000 17.308514 -0.240000 -0.280000 
