-0.450000 0.076000 -0.301000 -0.172000 0.261000 -0.027000 -0.071000 -0.225000 -0.329000 -0.132000 -0.106000 0.247000 0.132000 0.472000 0.076000 -0.372000 0.228000 0.479000 0.278000 -0.429000 
-0.602390 0.143610 0.113390 -0.099390 -0.190390 0.358390 -0.156610 -0.175390 0.180610 -0.695390 -0.009610 -0.382390 -0.562390 -0.624390 -0.134610 -0.341390 -0.399390 0.033390 -0.106610 0.020390 
-0.204390 0.538390 0.155390 0.624390 -0.322390 0.253610 -0.430390 0.050390 0.075610 0.305390 0.265390 0.031390 0.010610 0.110390 -0.535390 0.062610 -0.671390 0.199390 0.665390 -0.251610 
0.441000 -0.201000 0.314000 -0.268000 -0.215000 -0.029000 0.364000 0.368000 0.467000 -0.367000 0.073000 0.035000 0.481000 0.050000 -0.419000 -0.437000 0.039000 0.206000 -0.128000 -0.097000 
0.351000 0.450000 -0.059000 -0.260000 -0.457000 -0.199000 -0.080000 -0.343000 0.457000 -0.464000 0.168000 -0.134000 -0.457000 0.018000 -0.438000 0.403000 0.176000 -0.472000 -0.206000 -0.368000 
0.589390 0.419390 0.210390 0.020610 0.124390 -0.240390 0.273610 -0.060390 0.012390 0.028390 -0.056610 -0.087390 -0.337390 0.033610 0.210390 -0.134390 0.512390 0.083390 -0.055610 -0.328390 
0.274000 0.163000 -0.225000 -0.141000 -0.441000 0.314000 -0.428000 -0.494000 -0.020000 0.151000 0.313000 -0.359000 -0.167000 -0.416000 -0.299000 -0.120000 0.400000 0.339000 -0.360000 0.307000 
0.652390 0.184390 0.236390 0.237610 0.070610 -0.257390 0.098390 -0.612390 -0.253390 0.053390 0.234390 0.005390 0.142610 -0.638390 0.249390 0.244610 -0.055390 0.020610 0.198390 -0.408390 
-0.637390 0.321390 -0.133610 0.630390 -0.003390 -0.089610 0.134610 -0.167610 -0.650390 0.105390 -0.115610 0.050390 0.006610 0.353390 -0.314390 0.550390 0.017610 -0.029610 -0.003610 -0.258610 
-0.224000 -0.236000 0.421000 -0.122000 0.422000 0.115000 -0.160000 -0.295000 -0.290000 -0.259000 0.436000 0.049000 0.027000 -0.383000 0.106000 -0.038000 0.425000 0.185000 -0.433000 -0.359000 
-0.098000 4.184791 3.663791 0.439000 0.292000 4.024791 -0.430000 4.547791 3.805791 0.289000 
