0.330737 -0.911210 -0.627210 -0.824210 0.611737 -0.115263 0.417210 0.635737 0.390737 -0.216263 -1.081684 0.518737 0.070737 0.649210 -0.113737 1.195210 0.203737 0.285737 -0.025263 -0.291737 
0.212263 -0.321210 0.687737 0.348737 0.700210 0.600737 0.091263 -0.576737 -0.095737 -1.370684 -0.591737 -0.127737 0.635210 0.110737 0.548737 -0.040737 -0.736737 0.116263 -0.057737 -0.195263 
0.159263 0.109263 0.720737 0.998210 0.518210 -0.831210 -0.836210 0.899210 -0.044263 -0.988210 -0.740737 -0.071737 0.784210 0.878684 -0.196737 -0.744210 0.482737 0.259737 -0.253737 -0.191263 
0.507474 0.298474 0.023000 0.728474 -1.503421 -0.290474 -0.343474 -0.479000 0.988947 0.172000 -0.274000 -0.596474 0.096474 0.320000 -0.443000 0.181000 1.386947 -0.324000 -0.603474 -0.516474 
-0.175000 0.176000 -0.973474 0.065000 0.348000 0.564474 -0.422000 -0.473000 -0.202000 0.462000 -0.238000 -0.294000 -0.061000 -0.288474 0.417000 0.165474 0.286000 -0.527474 -0.109474 0.482000 
-0.003000 -0.346000 0.228000 0.058474 0.843474 0.224474 -0.216474 -0.561474 -0.033000 0.326000 -0.717474 0.230474 0.497474 -0.372000 -0.588474 1.000947 0.183000 -0.419000 -0.284000 -0.212000 
0.403737 -0.667737 0.233737 0.652737 0.718210 0.504210 -0.157737 -1.463684 0.389737 -0.563737 -0.542210 0.339737 0.610210 1.004684 -0.299737 0.922684 0.049737 -0.198263 0.274737 -0.533737 
0.033737 -0.108737 0.319737 0.300737 0.758737 -0.267737 0.084263 -0.258737 -0.748210 -0.941210 -0.376737 1.182210 0.632210 0.110737 -0.111263 -0.155737 -1.087210 -1.005684 -0.554737 -0.681737 
0.670474 0.066000 1.342421 0.132474 1.312947 1.018947 -0.470474 1.626421 0.137474 -0.902947 0.250000 -0.356474 1.221947 1.334421 0.692474 1.042947 0.304474 0.469474 0.384474 -0.370474 
0.690210 -0.148263 0.162263 0.226263 2.823105 0.200263 -0.205263 -0.124737 0.680210 0.392737 0.096263 -0.673737 0.439737 -0.042737 -0.037263 -0.083263 0.845210 -0.314737 0.005263 -0.756210 
-0.451737 -0.800210 -0.413210 -0.756474 -0.406000 -0.263474 -0.628210 -0.859210 -0.612947 -0.223737 
