1.772512 -1.886512 -2.284512 -1.799512 2.267512 -0.428000 1.776512 0.020000 1.783512 -0.137000 -3.544025 0.110000 1.596512 2.437512 -0.444000 2.279512 2.259512 -0.371000 -0.103000 -1.964512 
-1.371756 -0.604756 0.625756 0.762756 1.353756 1.400756 -1.064756 -0.555756 -0.981756 -2.881269 1.440756 -1.298756 0.975756 -0.547756 1.179756 -1.212756 -0.629756 -0.600756 -1.288756 0.857756 
0.480000 -0.216000 1.712512 1.966512 1.818512 -1.608512 -2.224512 -0.037000 0.306000 -1.852512 0.266000 0.223000 1.537512 1.946512 0.141000 -2.258512 0.470000 -0.371000 -0.310000 0.015000 
2.252512 1.587512 -0.348000 1.973512 -9.394562 -1.731512 -1.482512 0.449000 4.179025 -0.065000 0.212000 -2.275512 1.764512 -0.229000 -0.199000 -0.432000 4.330025 -0.341000 -2.242512 -2.334512 
1.101756 3.270268 -0.986756 2.821269 0.626756 -1.437756 -2.459269 0.630756 0.788756 0.516756 1.393756 1.178756 0.771756 -0.909756 -0.660756 0.594756 1.075756 -2.908268 -2.649269 -1.219756 
0.059000 -1.794513 2.293512 2.420512 2.225512 2.129512 -1.591512 -3.406025 -0.402000 -1.722512 -4.001025 2.371512 3.857025 -5.852537 -1.486512 3.548025 -0.159000 1.556512 1.619512 -0.280000 
1.754512 0.021000 0.197000 1.867512 1.985512 1.516512 -2.352512 -8.160049 1.989512 -1.996512 -1.539512 0.047000 4.272025 9.539562 -0.393000 3.600025 2.388512 -2.069512 -2.439512 -1.880512 
0.717756 -0.498756 0.862756 0.869756 -0.597756 -0.905756 -1.067756 -0.764756 -2.421268 -2.955268 -0.653756 2.437268 3.027268 0.659756 1.384756 -1.012756 -2.534269 -4.726781 -1.250756 -1.070756 
1.258756 0.521756 2.543268 2.792269 2.475269 2.568269 -3.028269 2.813268 0.542756 -2.670269 1.058756 -1.094756 3.101269 0.896756 1.099756 2.827269 0.723756 -0.956756 -1.076756 -0.734756 
0.624756 -1.456756 0.573756 1.362756 8.337806 -1.231756 -0.615756 -0.841756 0.582756 -2.886269 -1.085756 -0.538756 3.092268 0.972756 1.460756 -0.859756 1.164756 -0.883756 -1.197756 -0.885756 
-2.000512 -1.214756 -1.937512 -1.601512 -0.784756 -4.325025 -3.863025 -3.383269 -3.189269 -2.755269 
