0.937806 -0.776806 -3.073417 -1.039806 1.234806 1.351806 0.673806 0.456806 1.388806 0.409806 -2.592417 0.687806 1.175806 1.367806 -1.127806 3.028417 0.677806 -1.288806 -0.809806 -0.704806 
-0.646806 -0.556806 0.441806 0.832806 1.338806 0.852806 -0.946806 -1.269806 -0.539806 -2.719417 0.566806 -1.042806 0.990806 -0.920806 0.835806 -0.657806 -1.053806 -0.483806 -1.349806 0.469806 
0.126000 0.225000 2.033611 1.763611 1.866611 -1.341611 -1.547611 0.271000 -0.202000 -2.033611 0.144000 -0.004000 1.481611 1.394611 -0.230000 -1.405611 0.280000 -0.181000 -0.242000 -0.110000 
1.260806 1.159806 -0.893806 0.903806 -4.823029 -0.970806 -0.575806 1.250806 2.300417 0.840806 -0.524806 -1.272806 1.100806 0.561806 -0.481806 0.492806 3.154417 1.068806 -1.321806 -1.173806 
0.464000 -0.401000 -1.797611 1.385611 1.847611 0.314000 -1.638611 1.551611 0.092000 -1.365611 0.205000 -0.212000 2.088611 0.271000 0.056000 -0.450000 0.032000 -3.837223 -3.329223 0.035000 
1.081806 -1.238806 2.435417 3.007417 4.461029 0.452806 -2.663417 -4.702028 0.427806 -3.094417 -2.947417 0.679806 4.505028 -5.844640 -0.511806 2.234417 0.754806 1.294806 1.355806 -0.699806 
-0.376000 -0.126000 1.801611 2.022611 2.279611 0.349000 -1.336611 -1.359611 -0.083000 -1.764611 0.241000 0.294000 1.628611 1.494611 -0.219000 -0.052000 0.068000 -0.374000 0.377000 -0.423000 
1.698611 -0.304000 1.540611 0.323000 1.795611 -2.043611 -0.499000 -1.453611 -2.216611 -1.696611 -0.072000 1.828611 1.424611 -0.110000 2.265611 -1.376611 -1.929611 -3.525223 0.473000 -1.478611 
1.374611 2.006611 2.290611 1.772611 2.078611 1.799611 -1.894611 1.639611 1.874611 -0.276000 -0.479000 0.335000 1.863611 1.342611 0.172000 3.485223 2.016611 0.415000 -0.116000 -1.837611 
1.540611 -0.131000 0.096000 0.225000 1.391611 -1.737611 -0.152000 -0.287000 1.382611 -0.286000 -2.054611 0.038000 1.372611 1.561611 -0.170000 0.071000 2.088611 -0.275000 -0.134000 -2.095611 
-1.022806 -0.671806 -1.338611 -1.276806 -1.610611 -4.779028 -1.596611 -1.962611 -1.996611 -2.120611 
